[array([[[[ 0.51726705,  0.41808775, -0.10596637,  0.21932358,
          -0.59564584, -0.52772343, -0.0821804 ,  0.14166678,
          -0.16317289, -0.4310765 ,  0.21992987, -0.24969094,
          -0.3480604 , -0.41779253,  0.15915339,  0.07730167,
           0.5497069 , -0.3749891 , -0.16861299, -0.9670747 ,
           0.40200078,  0.03498062,  0.6174663 ,  0.20119672,
          -0.4301123 , -0.7276498 ,  0.27681106,  0.28266704,
           0.13481085, -0.38449004, -0.08139824, -0.05453466]],

        [[ 0.63288766, -0.48391876, -0.00331558,  0.13277282,
          -0.29198852,  0.07766262,  0.51814556, -0.6887047 ,
          -0.04715925,  0.49770012,  0.24412914,  0.29038584,
          -0.07238935, -0.41190958, -0.36899665, -0.07554594,
           0.15799227,  0.84678197,  1.0818543 ,  0.02295173,
          -0.21736497,  0.1311467 ,  0.21190982, -0.4706216 ,
           0.5840718 , -0.08373673, -0.07821601, -0.04266156,
          -0.47657073, -0.11086143, -0.15052852, -0.66696256]],

        [[-0.35673606,  0.05627199,  0.40926418,  0.57990927,
           0.07909714,  0.26667073,  0.07110716, -0.46174067,
          -0.04683041, -0.1500614 , -0.7400924 , -0.17397454,
          -0.3005739 ,  0.44970277,  0.7167115 ,  0.25228256,
          -0.2888667 , -0.49995193, -0.60739976, -0.44210672,
           0.736434  ,  0.29663682,  0.21067305,  0.0216355 ,
          -0.90786535, -0.3155255 ,  0.2565235 , -0.87404513,
           0.11147534, -0.2949421 ,  0.6636504 ,  0.14915635]]],


       [[[ 0.26048622,  0.01628498, -0.29518503, -0.2406408 ,
           0.79724723, -0.37520796,  0.12475013,  0.11300024,
          -0.65958494,  0.65846884,  0.67206836, -0.09276836,
          -0.63824064,  0.36630133, -0.6752855 ,  0.62346286,
          -0.2584659 ,  0.08307747,  0.1976885 ,  0.78210497,
           0.20074835,  0.10688639, -0.2263221 ,  0.4464422 ,
           0.77038753,  0.5970861 , -0.4307807 ,  0.07377555,
          -0.08315286,  0.43153962,  0.3657566 , -0.50335824]],

        [[-0.6546357 ,  0.66019267, -0.6275532 ,  0.31894857,
           0.22706906, -0.08152278,  0.37569216,  0.14463204,
          -0.24031693, -0.1713675 , -0.4387273 , -0.31112078,
           0.35018888, -0.13219248,  0.666292  , -0.56011504,
          -0.6802023 ,  0.23558922, -0.9707498 ,  0.75331545,
           0.02490484,  0.09089737, -0.3848236 , -0.6350519 ,
          -0.71880496, -0.44174773, -0.14107555, -0.03611671,
          -0.5492494 , -0.12351298, -0.01862794,  0.44993618]],

        [[-0.13255247, -0.45340565,  0.5666232 ,  0.09753795,
          -0.0599691 ,  0.5758524 , -0.35872802,  0.30182275,
          -0.09259834, -0.07002396, -0.14545363,  0.5154828 ,
           0.34825101, -0.27801564, -0.40894046, -0.8095204 ,
           0.3621315 , -0.37792715,  0.10189232, -0.17668507,
          -0.2805961 ,  0.4247516 , -0.45458332,  0.57453364,
           0.6484571 , -0.32547843,  0.18637802, -0.41050607,
           0.5133791 ,  0.41459882, -0.5159798 ,  0.06526654]]],


       [[[-0.26565844, -0.5032038 ,  0.28892326, -0.14980723,
          -0.23931865, -0.11739622, -0.14924708,  0.5401059 ,
           0.17328082,  0.20549151,  0.20256679, -0.11331649,
           0.02709128,  0.4190195 ,  0.03990333,  0.22010437,
          -0.09168205,  0.15411496, -0.01385191, -1.1886196 ,
           0.09510899, -0.35398477, -0.25492194,  0.4249616 ,
          -0.6713093 ,  0.00448512, -0.6522776 ,  0.03676829,
          -0.12778175,  0.26292568, -0.28200245,  0.54004014]],

        [[-0.2503109 ,  0.19988257, -0.5509023 ,  0.40292856,
          -0.4228224 ,  0.34354675, -0.35324314,  0.3297479 ,
           0.33877802, -0.7091357 ,  0.16798799,  0.6438572 ,
          -0.06149349,  0.07973313, -0.2923976 ,  0.32262304,
          -0.08912679, -0.18122697, -0.07894211,  0.57209253,
          -0.73020667, -0.45063105,  0.02537121, -0.6479219 ,
          -0.02183397,  0.8471263 , -0.16720057, -0.00757475,
           0.25989237, -0.20410545,  0.3724367 ,  0.34329233]],

        [[-0.1597367 ,  0.26520872,  0.20471421, -0.14278531,
           0.28572965,  0.36401144, -0.17706299, -0.50288975,
           0.5913162 ,  0.1779847 , -0.22437595, -0.6703943 ,
           0.2950466 , -0.23972175,  0.18054749,  0.58026826,
           0.49043614, -0.05628141,  0.62930065, -0.7274963 ,
           0.1510831 , -0.01812437,  0.2393745 ,  0.15129858,
           0.40109998,  0.54582715,  0.39175048,  0.5414279 ,
           0.64146507,  0.25661162,  0.11132988,  0.3483674 ]]]],
      dtype=float32), array([ 0.03953327, -0.17930768,  0.04436756, -1.0313817 , -0.02485058,
       -0.5223759 ,  0.01568545, -0.20216757,  0.04611895, -0.09507552,
       -0.00778035, -0.01054237,  0.04759197, -0.02008745, -0.10802147,
       -0.7279228 , -0.34814397, -0.03432428, -0.20940456,  0.18639034,
       -0.46340176, -0.33382416, -0.01712839, -0.18113677,  0.00150938,
       -0.10300444,  0.00271003,  0.0728837 , -0.48134145, -0.31425843,
       -0.5955031 , -0.7700297 ], dtype=float32), array([[[[-1.35431334e-01, -1.57449818e+00,  2.12005600e-02, ...,
          -6.91863429e-03,  1.35025024e-01, -4.56092745e-01],
         [-2.64397860e-01,  1.80623859e-01, -1.35266900e-01, ...,
           3.66805494e-01,  2.78570771e-01,  1.99957490e-01],
         [ 2.68573672e-01, -1.91544962e+00, -4.27826270e-02, ...,
           2.51757145e-01,  1.00342318e-01, -2.88273633e-01],
         ...,
         [-2.74682879e-01, -1.03824720e-01, -2.39947572e-01, ...,
           2.06510007e-01, -2.47456357e-01, -1.37725636e-01],
         [-4.68436509e-01, -1.10278569e-01, -9.93239880e-02, ...,
          -1.86606646e-01,  7.57147148e-02, -5.00187755e-01],
         [-4.72014606e-01, -4.93423998e-01, -2.90978819e-01, ...,
           4.18369144e-01,  3.34742457e-01, -1.62693620e-01]],

        [[ 2.15481855e-02, -2.57268965e-01, -4.01162237e-01, ...,
          -3.84918392e-01, -2.44674250e-01,  2.04437673e-01],
         [-4.23492581e-01,  8.00862685e-02,  3.52201045e-01, ...,
          -8.91703218e-02,  3.75633061e-01, -5.70497103e-02],
         [ 8.25000107e-02, -5.85978292e-02,  1.88181221e-01, ...,
           3.69450569e-01,  2.41294671e-02,  1.38637483e-01],
         ...,
         [-4.48629200e-01,  3.09054732e-01, -6.04572773e-01, ...,
           5.92766032e-02, -5.90135098e-01, -1.45588487e-01],
         [-5.78269541e-01, -1.00322083e-01, -2.97917426e-02, ...,
          -6.89137280e-02, -2.10117429e-01, -1.29022319e-02],
         [ 5.02570905e-02, -2.27869279e-03, -4.27012771e-01, ...,
          -4.25717309e-02, -3.39828819e-01, -1.59459949e-01]],

        [[ 2.86969338e-02, -1.24256122e+00, -3.85585949e-02, ...,
           2.36777917e-01, -1.42394826e-01, -5.16785145e-01],
         [-5.18063247e-01,  3.31629217e-02,  2.76495442e-02, ...,
           5.79773247e-01, -3.18640947e-01,  1.96309313e-01],
         [-3.97880748e-02, -3.54889818e-02,  4.21501815e-01, ...,
          -4.18941706e-01,  1.29395217e-01,  2.95512602e-02],
         ...,
         [-8.61500919e-01,  1.29102051e-01, -7.19808459e-01, ...,
          -2.56686926e-01, -6.33905649e-01, -4.12223637e-02],
         [-5.95124245e-01,  1.80683151e-01,  2.93013304e-01, ...,
          -3.31975281e-01, -1.38397172e-01, -8.78471211e-02],
         [-2.80268583e-02, -1.76742569e-01, -7.51613617e-01, ...,
           1.04982994e-01,  8.05759668e-01, -5.37724972e-01]]],


       [[[-5.71271181e-02,  1.19879723e-01, -2.06168331e-02, ...,
           1.03609286e-01,  5.10283411e-02,  4.25486565e-01],
         [ 1.39320210e-01, -2.15384066e-01,  1.53430775e-01, ...,
          -2.31013343e-01,  1.70294791e-01,  5.64507321e-02],
         [ 3.87663424e-01, -5.29999673e-01,  1.49238095e-01, ...,
          -1.01151735e-01,  1.87364504e-01,  8.78782570e-02],
         ...,
         [ 1.17038831e-01, -2.82592326e-01, -3.65806937e-01, ...,
          -1.15774989e-01,  1.31020010e-01, -2.81260818e-01],
         [ 8.85264799e-02,  1.55842960e-01,  2.84131318e-01, ...,
          -1.99777678e-01, -6.94407523e-01,  4.27152723e-01],
         [ 5.66553809e-02, -5.92772484e-01, -5.22230327e-01, ...,
          -5.60335934e-01,  2.31540114e-01,  5.32819629e-01]],

        [[-2.94841342e-02, -2.49240339e-01, -3.33437681e-01, ...,
           1.06706591e-02,  1.55224770e-01, -1.02779105e-01],
         [-2.84739137e-01, -9.68682915e-02,  2.04674885e-01, ...,
          -1.44981921e-01,  1.70037329e-01, -2.53824294e-01],
         [ 6.50364310e-02, -9.36388731e-01,  3.61215889e-01, ...,
           7.51636624e-02,  2.39858344e-01,  1.54947564e-02],
         ...,
         [ 3.60343605e-01, -2.92344898e-01, -7.99290895e-01, ...,
           9.15056840e-02, -9.31999981e-01,  2.99084574e-01],
         [-3.10072005e-01,  1.13161884e-01, -2.82190889e-01, ...,
          -6.52030468e-01,  5.51131606e-01, -1.00764923e-01],
         [ 1.10113107e-01, -5.75407982e-01, -1.73914719e+00, ...,
          -1.39390603e-01, -2.02096656e-01, -6.46217689e-02]],

        [[ 1.03489086e-01, -6.05843723e-01,  5.65227903e-02, ...,
           3.65241058e-02,  2.23639891e-01, -3.27107191e-01],
         [-6.69521511e-01,  2.42080644e-01,  1.49092540e-01, ...,
           1.21134236e-01, -6.59851264e-03,  8.32679570e-02],
         [-5.89131285e-03,  2.33820796e-01, -9.03088450e-02, ...,
          -8.76275003e-02,  7.07210600e-02,  7.78452978e-02],
         ...,
         [ 5.27541265e-02, -2.87414610e-01, -4.18704987e-01, ...,
          -1.66338220e-01, -1.13726187e+00,  2.73651257e-02],
         [-3.28036025e-02, -9.55726132e-02, -1.45376012e-01, ...,
          -4.92736608e-01, -3.71129960e-01, -3.14142197e-01],
         [ 3.21414351e-01, -1.60934374e-01, -7.36609101e-02, ...,
          -9.69401971e-02, -6.92495584e-01, -4.79891635e-02]]],


       [[[-5.74207231e-02,  4.82064098e-01,  1.00185247e-02, ...,
           1.50100574e-01, -2.60757565e-01, -2.15634421e-01],
         [ 3.38405132e-01, -4.23792571e-01, -1.40460029e-01, ...,
          -1.16022462e-02, -7.77302161e-02,  3.17072928e-01],
         [ 1.36248350e-01, -1.33161438e+00,  3.02814841e-01, ...,
           1.08873248e-01,  4.47296974e-04,  4.97953624e-01],
         ...,
         [ 1.12952292e-01, -7.27835476e-01, -2.63040394e-01, ...,
          -3.24399322e-02,  1.80515006e-01,  3.11150461e-01],
         [-3.01945388e-01,  2.97211222e-02, -6.16340816e-01, ...,
          -7.59317100e-01, -3.99530083e-01, -6.79922849e-02],
         [ 1.78557336e-01, -5.99923015e-01,  1.39304221e-01, ...,
          -1.63620859e-01,  3.69353473e-01,  3.12110454e-01]],

        [[-4.99730930e-02,  2.45734975e-01, -4.48060066e-01, ...,
          -2.03595504e-01, -1.78275891e-02, -1.90912187e-01],
         [ 1.33676887e-01, -9.02023837e-02,  1.59162492e-01, ...,
          -2.06541326e-02, -8.05461332e-02,  1.55269325e-01],
         [ 5.50352149e-02,  3.47540110e-01,  1.50594577e-01, ...,
           1.64219424e-01,  3.30026671e-02, -7.04512820e-02],
         ...,
         [ 5.98995313e-02, -3.94420713e-01, -1.98095769e-01, ...,
          -1.80050060e-02, -3.23390923e-02, -3.76354693e-03],
         [ 2.08232030e-01,  2.91034907e-01, -2.55504027e-02, ...,
          -1.36583656e-01,  1.96660817e-01,  2.28673965e-01],
         [ 4.98019308e-01, -1.00579000e+00,  2.49812603e-02, ...,
          -1.51007205e-01,  1.58807784e-01,  1.48879379e-01]],

        [[-1.69077873e-01, -7.44376242e-01,  9.18011889e-02, ...,
           4.20613326e-02, -4.47644770e-01, -3.62947553e-01],
         [ 4.34611402e-02, -1.08132660e-01, -1.20379895e-01, ...,
          -1.95486814e-01,  3.88747603e-02, -2.96864480e-01],
         [-1.89454004e-01,  6.91091046e-02, -1.42030627e-01, ...,
          -3.37266415e-01,  1.37199303e-02,  1.90672651e-01],
         ...,
         [ 1.23699484e-02, -2.26591364e-01,  1.08994201e-01, ...,
           5.64840659e-02,  1.70889601e-01, -1.15907699e-01],
         [-2.33391464e-01,  6.90010414e-02, -1.15062788e-01, ...,
          -4.73668844e-01, -5.50822075e-03, -1.67253271e-01],
         [ 2.97956377e-01, -7.60334253e-01,  4.65394378e-01, ...,
          -1.48643196e-01,  7.12085292e-02,  5.26488647e-02]]]],
      dtype=float32), array([ 1.3282647e-02, -3.1962089e-02, -8.7944113e-02, -1.0180066e-01,
       -4.4850700e-02, -1.2843469e-01, -2.2061944e-01,  3.8687196e-02,
        2.1060789e-01, -1.6195892e-01, -3.6097559e-01, -5.5450097e-02,
        1.4508951e-01, -7.0610203e-02, -6.6056289e-02,  1.3874186e-02,
        3.1627983e-02, -1.5469542e-01, -2.7969834e-01, -1.1277891e-01,
       -9.9752225e-02, -2.3282942e-01,  7.8242712e-02, -3.3444959e-01,
       -8.4087752e-02, -4.9128667e-01, -6.1959974e-02, -9.2507459e-02,
       -1.0291002e-02, -4.6228823e-01,  1.4468031e-01, -1.2677222e-01,
       -6.4936213e-02,  1.3246426e-02,  1.4418074e-01,  9.5724955e-02,
       -2.9797646e-01, -6.8176073e-01,  1.1846906e-02, -2.2237518e-01,
       -1.1158899e-01, -2.5566387e-01,  5.8975117e-04, -1.4196572e-01,
       -1.2449725e-01, -3.3169635e-02, -9.6299030e-02, -3.6523932e-01,
       -4.5172715e-01, -2.6936701e-01, -1.4710596e-01, -1.8162233e-01,
       -7.5567394e-02, -1.5181270e-01, -2.1853900e-01,  4.4777613e-02,
       -5.9759223e-01,  6.5643594e-02,  2.9807594e-02, -2.7767542e-01,
       -6.4879261e-02, -2.0191920e-01, -6.1251279e-02, -1.9345221e-01],
      dtype=float32), array([[ 0.28536382,  0.16908406, -0.09483277, ...,  0.15084058,
        -0.4947624 , -0.08026872],
       [-0.08796193, -0.16497341,  0.1033062 , ...,  0.40609747,
         0.1357243 , -0.08845266],
       [ 0.4772133 ,  0.12264674,  0.46162233, ..., -0.333921  ,
        -0.35257334,  0.34316048],
       ...,
       [-0.05534902, -0.29683882,  0.32837868, ..., -0.2973063 ,
         0.17312944,  0.21963586],
       [ 0.38053906, -0.08778077, -0.3225632 , ..., -0.13197082,
        -0.3424208 , -0.48080206],
       [ 0.2761689 , -0.1368367 , -0.39699063, ...,  0.0643627 ,
         0.1048637 ,  0.2079756 ]], dtype=float32), array([ 0.1048215 ,  0.03845413,  0.169958  , -0.03646276,  0.1940951 ,
        0.08646787, -0.0565806 ,  0.20153674, -0.1124418 , -0.10037596,
        0.14604972,  0.00153405, -0.16905211,  0.12458448,  0.0741716 ,
       -0.1879071 , -0.01869245, -0.16249695,  0.15260157, -0.1388675 ,
        0.06475579,  0.14436176,  0.1974496 ,  0.1568538 , -0.11844196,
        0.10648218,  0.0141943 ,  0.12722458, -0.08366104,  0.13714053,
        0.0674524 , -0.2390767 , -0.24349113,  0.08329014,  0.01619096,
       -0.15888712,  0.04828786, -0.09026536, -0.24846035,  0.15340698,
        0.3141144 ,  0.17540123,  0.18245906, -0.22672947, -0.01593531,
       -0.09887949, -0.12163838,  0.07918412, -0.01778101,  0.18263474,
        0.06488993, -0.086653  ,  0.17329738, -0.23459817, -0.0552763 ,
       -0.2366098 ,  0.04731451,  0.32964882,  0.11343352,  0.17226131,
        0.2502171 ,  0.34327376, -0.18066104,  0.00611377], dtype=float32), array([[-2.16324460e-02, -2.06684753e-01,  1.03918724e-02, ...,
        -1.45399226e-02, -1.52151331e-01, -9.59104225e-02],
       [ 1.42217964e-01,  5.91901690e-02,  9.41529050e-02, ...,
        -1.22841023e-01, -1.61522925e-01,  3.90347429e-02],
       [-3.10364794e-02,  1.07642576e-01,  1.03192605e-01, ...,
        -6.93329200e-02, -8.45229998e-03,  3.44262831e-02],
       ...,
       [ 6.75406605e-02, -1.59758538e-01,  7.01492205e-02, ...,
         8.44060257e-02, -6.44505084e-01,  1.43457185e-02],
       [-9.06029120e-02,  8.86378251e-03, -5.57543226e-02, ...,
        -1.42242208e-01,  6.61474541e-02, -2.17337646e-02],
       [ 1.02814309e-01,  1.86588895e-02, -2.88365874e-02, ...,
         6.24562672e-04, -9.80532616e-02, -3.53058241e-02]], dtype=float32), array([-3.07480544e-02,  2.07604215e-01,  1.28712758e-01,  1.14951447e-01,
        1.13154024e-01, -2.77265180e-02,  1.20695852e-01,  3.81151102e-02,
        1.18321612e-01,  6.12415560e-02,  2.92693347e-01,  1.47870257e-01,
        2.92850971e-01, -2.25065172e-01,  2.12167382e-01,  2.04218134e-01,
        2.97170550e-01, -1.79405864e-02, -1.02749251e-01,  5.56657426e-02,
       -5.05294092e-02,  1.27849773e-01,  7.64042288e-02,  1.95025787e-01,
       -2.08258793e-01,  1.25952631e-01, -1.83536112e-01,  1.47310808e-01,
        1.20005615e-01,  1.50365323e-01, -7.55715966e-02,  1.50993451e-01,
        2.29964226e-01,  5.70195578e-02, -1.10946618e-01,  2.34670967e-01,
        3.66203696e-01, -1.06516518e-01,  7.57703185e-02, -4.17204648e-02,
        1.03636868e-01,  1.37496293e-02,  1.56533495e-02,  1.07224979e-01,
        2.68415920e-02,  2.76862353e-01, -6.31847307e-02,  2.24755242e-01,
        2.64367074e-01,  1.98769987e-01,  4.09564748e-02,  4.75937761e-02,
        2.50934541e-01,  5.45468070e-02,  1.42861575e-01,  2.97725856e-01,
       -3.76110571e-03,  5.83676137e-02, -1.38019785e-01, -6.67354763e-02,
       -2.08795324e-01,  2.20781207e-01, -1.57082677e-01, -8.52144603e-03,
        1.68265268e-01,  1.64107412e-01, -4.57490683e-02,  1.41334916e-02,
        1.08803615e-01,  6.85215369e-02,  1.45345315e-01, -1.63010567e-01,
        3.30271684e-02,  6.73187077e-02,  1.41296834e-01,  5.95661215e-02,
        1.14004575e-01,  5.38497418e-02,  1.58739761e-02,  1.53179750e-01,
        5.75461760e-02,  2.36771703e-02,  2.37713009e-01,  2.07152501e-01,
        2.29634973e-03,  1.05248451e-01,  1.63217410e-02,  1.03539683e-01,
       -8.47049356e-02,  5.33138849e-02,  1.30731687e-01,  1.32061020e-01,
        7.28536695e-02,  2.74910539e-01,  2.16268152e-01, -3.38911675e-02,
       -3.60722393e-02,  2.01041058e-01,  3.41297537e-01,  8.36534053e-02,
        8.77212361e-02,  1.28100500e-01,  1.03881791e-01,  2.34394342e-01,
        4.45293816e-04, -7.71979243e-02,  2.75155991e-01,  4.46009636e-02,
        4.07009602e-01, -1.42826214e-01,  5.97188026e-02,  1.33389667e-01,
       -1.68153986e-01, -2.05518659e-02,  9.07731280e-02,  7.00445399e-02,
        1.93585008e-01,  1.82717457e-01, -7.11475387e-02,  5.70865870e-01,
       -3.66942235e-03,  3.78412813e-01,  1.24061994e-01,  2.03972965e-01,
       -1.59176234e-02,  1.51254356e-01, -2.28495430e-03,  2.98344847e-02],
      dtype=float32), array([[ 0.08045424, -0.0408283 ,  0.35498035, ...,  0.21219786,
         0.21151435,  0.43145815],
       [-0.1738569 , -0.5916268 ,  0.08093403, ..., -0.16808802,
        -0.19249627,  0.18690099],
       [ 0.06796037, -0.28529668,  0.06973899, ...,  0.5007639 ,
        -0.09640315, -0.23464556],
       ...,
       [ 0.27984974, -0.07012862, -0.12054909, ...,  0.73164076,
        -0.05687184, -0.15367402],
       [ 0.17783342, -0.24961118,  0.24921691, ...,  0.35627067,
         0.02995721,  0.03112176],
       [ 0.39329186, -0.09854692,  0.45726106, ...,  0.23910633,
        -0.04656008,  0.05576969]], dtype=float32), array([[ 0.40641344,  0.16410317,  0.26928413, ..., -0.24157307,
         0.47939917, -0.64674485],
       [ 0.04815017, -0.34397367, -0.14831199, ...,  0.3227911 ,
        -0.03448859,  0.06373989],
       [ 0.29652232, -0.10913492,  0.3322075 , ...,  0.65780026,
        -0.56214714,  0.21999002],
       ...,
       [ 0.43502232, -0.99782324,  0.4114414 , ...,  0.02189569,
         0.5907325 , -0.7798112 ],
       [-0.31187266,  0.20733795, -0.32973915, ..., -0.77191645,
         0.2249043 ,  1.4866823 ],
       [-0.0237205 , -0.07434443,  0.02405277, ..., -0.2807052 ,
         0.37189594,  0.2814956 ]], dtype=float32), array([-3.29006463e-01, -5.87066650e-01, -1.06724841e-03, -4.38298494e-01,
       -6.58446550e-01, -4.08245116e-01, -2.65272614e-02, -7.70007491e-01,
       -4.44977731e-01, -5.73714674e-01, -2.42928013e-01, -2.81701256e-02,
       -2.18162924e-01, -5.41777670e-01, -6.43145218e-02, -6.60339952e-01,
       -1.54324606e-01, -6.92420006e-01, -6.49323046e-01,  2.72857063e-02,
       -6.17674649e-01, -5.77137709e-01, -6.52104437e-01, -2.80912280e-01,
       -7.16124773e-01, -2.71061420e-01, -4.59902585e-01, -3.40483010e-01,
       -4.29260850e-01, -3.82429451e-01,  8.71283114e-02, -5.70641518e-01,
       -5.21934442e-02, -5.92155159e-01, -5.84595978e-01, -4.54770774e-01,
       -3.89978886e-01, -1.66558862e-01, -5.56602538e-01, -3.41723412e-01,
       -4.64486063e-01, -1.67102993e-01, -4.82168138e-01, -2.92234540e-01,
       -3.85786057e-01, -6.96753442e-01, -5.85473418e-01, -1.09547250e-01,
       -2.13985313e-02, -4.04213041e-01, -4.71795529e-01, -1.12263918e+00,
       -1.99918553e-01, -2.39186630e-01, -8.84530902e-01, -2.35805809e-01,
        3.21672648e-01, -8.08653772e-01, -3.13244015e-01, -4.70348299e-01,
       -3.93250316e-01, -2.56783426e-01, -1.12648189e+00, -3.50645661e-01,
        4.20198947e-01, -9.44412887e-01, -2.64210612e-01,  1.64059803e-01,
       -2.55001754e-01, -3.79409373e-01,  5.09079285e-02, -7.81563401e-01,
       -7.86879122e-01,  2.85183284e-02, -8.20095167e-02, -4.27839249e-01,
       -7.62184978e-01, -7.33664691e-01, -5.53932965e-01, -4.48685288e-01,
        1.83097973e-01, -6.01024151e-01, -2.81445801e-01, -4.27188516e-01,
       -2.54396409e-01, -4.66375053e-01, -1.86659887e-01, -1.29832968e-01,
       -5.39342821e-01, -4.94819015e-01, -2.43101269e-02, -6.47877097e-01,
       -3.61312300e-01, -6.02927506e-01, -4.09451842e-01, -8.19373608e-01,
       -9.87559497e-01, -3.87461931e-01, -7.92243332e-02, -3.22330028e-01,
       -9.53303993e-01, -6.11691952e-01,  2.71813333e-01, -6.14212751e-02,
       -1.16734540e+00,  2.15736721e-02,  1.95205629e-01, -4.37563300e-01,
       -6.38646483e-01, -5.01544237e-01, -2.03226935e-02, -4.56596851e-01,
       -1.36530191e-01, -2.27137968e-01, -4.50687230e-01, -1.05482864e+00,
       -6.73928976e-01, -2.89853513e-01, -6.64308131e-01, -2.13915676e-01,
       -7.94097662e-01, -6.54809117e-01, -1.00125515e+00,  5.31850338e-01,
       -7.86112547e-01, -4.00701672e-01, -8.01068723e-01, -2.36155152e-01,
        6.08563662e-01,  7.47692466e-01,  5.32122850e-01,  8.25953603e-01,
        6.67984605e-01,  6.90912008e-01,  6.41264260e-01,  1.22479939e+00,
        8.04942489e-01,  8.45671356e-01,  5.61670840e-01,  5.80945134e-01,
        9.82842147e-01,  9.20584500e-01,  5.75290143e-01,  1.32606268e+00,
        7.40314782e-01,  6.80027783e-01,  1.13145089e+00,  5.86292267e-01,
        7.90380061e-01,  6.02024972e-01,  1.09201872e+00,  5.15603721e-01,
        8.82270992e-01,  7.38104522e-01,  6.83719695e-01,  7.61598051e-01,
        1.04831135e+00,  1.00369799e+00,  1.07638216e+00,  1.12800562e+00,
        1.02115130e+00,  5.74814439e-01,  8.98854613e-01,  6.06112361e-01,
        5.90059996e-01,  1.14380884e+00,  9.52390492e-01,  9.18660522e-01,
        7.30778933e-01,  6.04441345e-01,  7.73528337e-01,  7.82613695e-01,
        7.35740006e-01,  1.27524614e+00,  7.97528207e-01,  1.06280494e+00,
        5.80225408e-01,  8.77645910e-01,  1.32711017e+00,  9.18822348e-01,
        6.99682593e-01,  1.25892162e+00,  1.16246355e+00,  8.33366573e-01,
        1.04068434e+00,  1.06943953e+00,  1.24823511e+00,  1.16616583e+00,
        5.82363248e-01,  8.58085275e-01,  1.41091514e+00,  6.26123011e-01,
        9.05278385e-01,  7.01145530e-01,  4.92138714e-01,  1.05095696e+00,
        1.05826938e+00,  1.07122779e+00,  5.75764179e-01,  1.20317149e+00,
        1.17850983e+00,  5.72679222e-01,  1.02260244e+00,  5.40221751e-01,
        9.58342850e-01,  1.07722092e+00,  9.81677890e-01,  8.21898043e-01,
        1.32968056e+00,  9.42499518e-01,  9.00521994e-01,  8.71860623e-01,
        7.14672744e-01,  5.71338236e-01,  8.49237144e-01,  8.92009556e-01,
        1.03335083e+00,  6.90531433e-01,  7.65716970e-01,  1.24333763e+00,
        9.39880133e-01,  8.87339056e-01,  1.17156720e+00,  1.29414737e+00,
        1.41830826e+00,  1.09991455e+00,  1.00666654e+00,  1.20931900e+00,
        8.29726338e-01,  1.15415585e+00,  9.05250609e-01,  8.94368470e-01,
        1.24837756e+00,  9.20287192e-01,  2.94479102e-01,  1.01368248e+00,
        1.07413936e+00,  1.18305326e+00,  2.62468159e-01,  4.29738849e-01,
        1.02826893e+00,  8.55913043e-01,  6.93861961e-01,  1.22432828e+00,
        9.28654373e-01,  7.55893946e-01,  1.22951353e+00,  9.57402587e-01,
        1.28685653e+00,  7.79880047e-01,  8.12480330e-01,  9.20597851e-01,
        9.98968601e-01,  5.19243240e-01,  8.51964533e-01,  7.85719931e-01,
       -7.02153966e-02,  1.17466159e-01,  1.50390819e-01,  1.35126784e-01,
        5.47585636e-02,  3.52695547e-02, -1.81320105e-02, -1.41764790e-01,
        1.38954371e-01, -1.94848895e-01, -1.33142591e-01,  2.53597826e-01,
       -7.63574123e-01, -1.73365369e-01, -2.82036483e-01, -2.37429947e-01,
        1.48063317e-01, -2.23380908e-01,  1.24154082e-02,  3.83577198e-01,
       -2.36569270e-01,  2.43304327e-01, -8.01830888e-02, -3.34629148e-01,
       -7.15003237e-02,  1.18372619e-01,  7.76527226e-02,  8.83639529e-02,
       -1.83453225e-02, -1.69854194e-01, -6.60897121e-02,  1.39185160e-01,
       -1.20466262e-01, -1.70098141e-01,  2.23725677e-01,  4.91205491e-02,
        3.38880926e-01, -3.31533514e-02, -1.51923615e-02, -2.27512509e-01,
        1.56797215e-01,  8.84895697e-02, -1.21368878e-01,  1.27772521e-02,
       -2.43851215e-01,  1.15624361e-01,  2.79473782e-01,  1.13257617e-01,
        1.71358764e-01,  7.20534697e-02,  6.15377054e-02,  2.24398673e-01,
        6.92154393e-02,  9.02819484e-02, -1.31863654e-01, -5.11649847e-02,
        4.64953035e-01, -1.53730780e-01,  1.77139595e-01, -1.66807532e-01,
        2.10729152e-01,  7.92550817e-02,  1.64244592e-01,  5.72277829e-02,
        3.81615788e-01, -1.41853124e-01,  1.69459119e-01, -6.55525029e-01,
       -1.53330758e-01,  1.05904952e-01,  9.75637659e-02, -1.18261401e-03,
        2.21309885e-01, -1.84368059e-01, -8.36422294e-02,  1.69039220e-01,
       -1.21584840e-01,  1.01756051e-01,  5.67918010e-02, -1.54102072e-01,
        9.97582555e-01,  7.78162256e-02,  2.16267064e-01, -2.00524285e-01,
       -6.49720430e-02, -1.75450712e-01, -1.85246319e-02, -5.24476051e-01,
        4.78716865e-02,  3.65981221e-01,  5.92950210e-02,  2.08660245e-01,
        2.30423212e-01,  1.71831027e-01, -1.29963681e-01, -2.46090472e-01,
       -1.64799988e-02,  5.68841957e-03,  1.35974139e-01, -1.18450433e-01,
       -1.25833824e-01, -8.49077776e-02,  5.04798353e-01,  8.98452550e-02,
        3.06863990e-02,  2.68194467e-01, -1.17878824e-01, -7.98478723e-02,
        9.44807678e-02, -4.74036902e-01,  2.13368550e-01, -6.62063509e-02,
        4.59808037e-02, -1.83953002e-01, -4.18359879e-03,  1.89523056e-01,
       -2.13464767e-01,  1.82518825e-01,  4.50159283e-03,  5.38776256e-02,
       -3.58906180e-01,  1.29968479e-01,  3.27647403e-02, -5.46557963e-01,
        1.08379222e-01, -2.26508547e-02,  2.15224877e-01, -1.24378555e-01,
       -2.06908330e-01, -7.27996469e-01, -1.35826737e-01, -4.59688246e-01,
       -1.91685006e-01, -2.66620219e-01, -1.94815677e-02, -2.43065447e-01,
       -6.19938672e-01, -1.52229130e-01, -3.80092442e-01, -8.40040948e-03,
       -1.76018476e-01, -3.78819674e-01, -1.55644521e-01, -5.12088180e-01,
       -6.91256151e-02, -6.95037603e-01, -2.21784972e-02, -5.72032452e-01,
       -3.05713385e-01, -3.70864391e-01, -4.66752470e-01, -1.90165117e-01,
       -3.05129886e-01, -2.94420689e-01, -4.88578975e-01, -2.77223051e-01,
       -1.09028220e-01, -2.77146876e-01, -2.74420798e-01, -7.03797460e-01,
       -3.11578333e-01, -3.49390149e-01, -5.58603466e-01, -2.00841725e-01,
       -5.66085100e-01, -6.63173676e-01, -1.61667198e-01, -8.37615550e-01,
       -7.42664039e-02, -4.91321743e-01, -6.94094777e-01, -4.03493136e-01,
       -3.82385820e-01, -3.17804694e-01, -4.26322550e-01, -1.41252056e-01,
       -1.07119285e-01, -4.13756877e-01, -5.72568953e-01, -1.71838239e-01,
       -3.62947173e-02, -4.27634746e-01, -1.00912225e+00, -1.87626034e-01,
       -1.39412433e-01, -6.17203772e-01, -9.63131368e-01, -2.53141075e-01,
       -3.68599594e-01, -2.68086880e-01, -3.59331965e-01,  4.90399078e-02,
        3.06292385e-01, -5.36414146e-01, -2.34631673e-01, -3.00422907e-01,
       -5.03910661e-01, -3.28248680e-01,  2.46199548e-01, -1.33657143e-01,
       -4.77614820e-01,  7.64337480e-02, -6.13302708e-01, -2.04676226e-01,
       -4.02900279e-01, -4.08584714e-01, -3.09244215e-01, -3.09322059e-01,
       -1.85285702e-01, -3.87001425e-01, -2.30472103e-01, -4.67386246e-01,
        1.04490265e-01,  2.09329687e-02, -1.04607053e-01, -4.93708789e-01,
       -6.29982829e-01, -2.17956707e-01, -3.43619883e-01, -4.12166715e-01,
       -2.23417476e-01, -6.07475102e-01, -4.32442665e-01,  1.17743149e-01,
       -2.18515322e-01, -4.97082651e-01, -2.82409102e-01, -6.12393618e-01,
       -7.41937697e-01, -3.62743258e-01, -1.19003788e-01,  1.27753674e-03,
       -4.28750932e-01, -3.77494171e-02,  2.67429590e-01, -3.61135811e-01,
       -3.34309250e-01, -2.45224744e-01, -1.64584070e-01, -1.40671462e-01,
       -2.93291211e-01, -1.93937138e-01, -4.81471181e-01, -3.67305398e-01,
       -1.25038755e+00, -2.53899366e-01, -2.67808139e-01, -4.29492801e-01,
       -5.62343001e-01, -4.87945169e-01, -6.29015207e-01, -5.01637995e-01,
       -3.21034014e-01, -1.31627142e-01, -6.82839155e-01, -6.99578047e-01],
      dtype=float32), array([[ 0.02440451, -0.26966983,  0.8398027 , ..., -0.01349576,
        -0.01411141, -0.22836247],
       [-0.01109544, -0.32760316,  0.11001106, ..., -0.10620098,
        -0.3256091 , -0.05980358],
       [-0.4681324 ,  0.14673713,  0.20999819, ...,  0.00870604,
         0.16506572, -0.19783495],
       ...,
       [-0.19808923,  0.04835302, -0.15514626, ...,  0.32358888,
         0.01872819,  0.3455719 ],
       [-0.06289311, -0.06821502,  0.503092  , ...,  0.08395915,
        -0.06543525,  0.27985626],
       [-0.35767817,  0.10278554, -0.26178905, ...,  0.21534808,
        -0.29257265,  0.07610117]], dtype=float32), array([[-0.24027541,  0.36356312,  0.00119032, ...,  0.2163631 ,
         0.20042473,  0.4595644 ],
       [ 0.58706445,  0.37314034, -0.03736879, ...,  0.64016336,
        -0.27039087, -0.328123  ],
       [-0.45872572,  0.3330033 ,  0.08637602, ..., -0.30749175,
         0.11684597, -0.4536109 ],
       ...,
       [-0.03118129, -0.4368893 , -0.10568   , ...,  0.12175546,
        -0.07252164, -0.3436223 ],
       [-0.30158144,  0.22699967, -0.14814636, ..., -0.12664169,
        -0.13781789,  0.3615833 ],
       [ 0.12394387,  0.3633608 ,  0.33671978, ..., -0.6149849 ,
        -0.5056826 , -0.3367345 ]], dtype=float32), array([-1.24568570e+00, -2.05165625e-01, -7.46228397e-01, -9.89422262e-01,
       -6.84803903e-01, -3.66556287e-01, -9.15503502e-01, -4.77338582e-01,
       -5.64984202e-01, -6.31312013e-01, -4.96253788e-01, -1.21787524e+00,
       -7.04646528e-01, -8.26280832e-01, -2.46723801e-01, -8.55611145e-01,
       -3.56363714e-01, -4.78283376e-01, -1.38048932e-01, -9.31934059e-01,
       -8.88265431e-01, -2.45633230e-01, -7.44717240e-01, -7.28512168e-01,
       -7.52237022e-01, -8.30661476e-01, -9.27420616e-01, -2.09390655e-01,
       -4.43256259e-01, -8.70730340e-01,  1.39528319e-01, -3.23437363e-01,
       -1.73774451e-01,  2.24436428e-02, -5.64495683e-01, -4.79129672e-01,
       -7.19419956e-01, -3.78420025e-01, -4.48859930e-01, -4.71930087e-01,
        1.00879585e-02, -1.04656661e+00, -5.07638216e-01, -6.80166304e-01,
       -3.37348372e-01, -2.01769248e-02, -9.36954141e-01, -4.05388057e-01,
       -4.14804846e-01, -8.08647096e-01, -7.14357123e-02, -7.98041999e-01,
       -4.50742155e-01, -8.21402431e-01, -2.24066123e-01, -2.80549318e-01,
       -6.74971461e-01,  1.11636721e-01, -5.55169165e-01, -4.15368527e-01,
       -8.88379514e-01, -8.75912666e-01, -3.64100970e-02, -4.68110442e-01,
       -8.32783401e-01, -8.91950801e-02,  1.24434315e-01, -4.75861341e-01,
       -2.77083784e-01, -4.58049774e-01, -8.87586296e-01, -5.83647728e-01,
       -7.06875026e-01, -5.83652258e-01, -7.44278193e-01, -4.48659927e-01,
       -4.39830720e-01, -7.07618296e-01, -8.68042707e-01, -5.07566571e-01,
       -2.72450000e-01, -9.83924687e-01, -9.94720995e-01, -6.28300488e-01,
       -3.86081934e-01, -3.20713013e-01, -5.93819857e-01, -4.86692816e-01,
       -5.26102662e-01, -2.53268391e-01, -5.87621331e-01, -6.87594295e-01,
        5.71642369e-02, -9.69044387e-01, -4.64536920e-02, -9.98900831e-02,
       -4.21335518e-01, -6.85496569e-01, -5.46997190e-01, -3.40751767e-01,
       -1.11679085e-01, -6.48795545e-01, -5.89895904e-01, -3.01089257e-01,
       -5.38318872e-01, -4.61836308e-01, -4.71284568e-01, -5.50692618e-01,
       -1.14766943e+00, -6.02165818e-01, -3.55609834e-01, -9.60706115e-01,
       -1.22243571e+00, -5.03026307e-01, -6.80115640e-01, -7.22350776e-01,
       -4.05264020e-01, -6.59961760e-01,  9.04831756e-03, -4.19945955e-01,
       -2.38363463e-02, -7.84164071e-01, -1.08230448e+00, -8.91673028e-01,
       -6.40982568e-01, -1.09638143e+00, -7.85960019e-01, -4.02259886e-01,
        1.16583061e+00,  5.58416247e-01,  1.26694679e+00,  1.06812727e+00,
        6.60102248e-01,  6.79075122e-01,  7.27015734e-01,  8.03180814e-01,
        1.08942306e+00,  1.16153479e+00,  1.44448590e+00,  1.49510980e+00,
        8.09686959e-01,  9.81908619e-01,  1.09987211e+00,  1.05652714e+00,
        5.80394626e-01,  9.34635341e-01,  7.73351610e-01,  1.22966170e+00,
        9.99746799e-01,  7.54019678e-01,  1.05826211e+00,  8.87210965e-01,
        9.22438323e-01,  1.23439026e+00,  1.32633471e+00,  8.20191920e-01,
        9.41517591e-01,  1.26344323e+00,  8.13188374e-01,  8.74913692e-01,
        7.97231436e-01,  9.43471849e-01,  6.95437014e-01,  1.02512991e+00,
        1.28995240e+00,  8.72397184e-01,  1.22466743e+00,  1.19141662e+00,
        1.19828773e+00,  1.02410030e+00,  1.16555440e+00,  9.52954054e-01,
        1.03007829e+00,  4.31685746e-01,  8.27254772e-01,  9.80782032e-01,
        4.94574755e-01,  1.21043825e+00,  9.12345350e-01,  8.11587214e-01,
        8.64605904e-01,  9.73536074e-01,  1.08937883e+00,  5.17383754e-01,
        9.69416499e-01,  1.31438863e+00,  6.31766319e-01,  8.35338891e-01,
        1.10808587e+00,  1.21360874e+00,  1.03261876e+00,  1.06239080e+00,
        9.92612243e-01,  9.63281035e-01,  7.97036409e-01,  1.25296032e+00,
        9.75972474e-01,  5.13574481e-01,  1.29169810e+00,  9.19983685e-01,
        1.12965119e+00,  1.24951756e+00,  7.42705524e-01,  1.24393857e+00,
        1.15651178e+00,  1.18430734e+00,  6.77515924e-01,  7.02462614e-01,
        7.33300865e-01,  1.17310262e+00,  1.34577620e+00,  9.81082559e-01,
        9.61616457e-01,  1.28190184e+00,  7.34871387e-01,  8.55846345e-01,
        1.04236352e+00,  9.27715600e-01,  1.08741653e+00,  1.24599159e+00,
        9.78902817e-01,  7.81159699e-01,  1.10982049e+00,  9.70635295e-01,
        7.05817401e-01,  5.99430084e-01,  6.85836494e-01,  8.58965814e-01,
        1.24287105e+00,  1.21801758e+00,  1.00314140e+00,  1.15055668e+00,
        8.36643636e-01,  1.19633758e+00,  1.01614666e+00,  6.81451976e-01,
        1.26893604e+00,  8.13511908e-01,  1.12996089e+00,  1.20186567e+00,
        1.29840922e+00,  1.05588496e+00,  9.58852291e-01,  9.18656886e-01,
        4.31234777e-01,  9.73270476e-01,  7.86512733e-01,  4.66580689e-01,
        6.21940911e-01,  6.48092985e-01,  1.01389444e+00,  1.47184122e+00,
        9.17317033e-01,  1.27831972e+00,  9.80554700e-01,  8.43725026e-01,
        1.29672959e-01, -7.12141812e-01,  1.32425651e-01,  6.27800971e-02,
       -1.38078928e-01,  5.63856065e-02,  2.91485250e-01,  1.60356671e-01,
        2.06505224e-01, -7.17455745e-01, -2.16197327e-01,  1.96806490e-02,
       -1.80423521e-02, -1.43079400e-01, -1.23462267e-02, -1.23897120e-01,
        1.72344759e-01, -9.23890993e-02,  9.99753326e-02,  4.20235336e-01,
       -2.48538390e-01,  3.33567888e-01, -1.87710911e-01,  1.25180081e-01,
       -1.23532480e-02,  3.08388382e-01,  1.13627566e-02, -1.43376082e-01,
       -7.94436142e-04,  5.37047200e-02, -5.01206279e-01,  9.15586203e-02,
        9.88416094e-03, -6.86943755e-02,  5.57628348e-02,  4.54360321e-02,
        5.52727608e-03,  2.01532602e-01, -3.87839936e-02, -8.99839848e-02,
       -5.97310483e-01,  1.49964154e-01, -1.59761637e-01, -2.92516261e-01,
       -3.51177096e-01, -5.90556152e-02, -3.26997966e-01,  2.05389723e-01,
        6.14961565e-01, -6.36925921e-03, -1.34516448e-01,  1.51727244e-01,
       -2.01383606e-01,  1.09718442e-02,  3.69679660e-01,  1.44795943e-02,
        2.19142839e-01, -1.86496243e-01,  1.95734352e-01, -1.37797832e-01,
        5.07495627e-02, -8.51871595e-02,  5.08344173e-01, -3.48934345e-03,
        1.23735629e-01, -3.83069783e-01,  2.34925300e-01,  2.93680042e-01,
        1.77449957e-01,  9.30142850e-02, -7.39997923e-02,  4.93365735e-01,
        1.32107371e-02, -1.86890438e-01,  5.98602183e-02, -1.38513610e-01,
        1.85931772e-01, -7.95681998e-02,  1.44073293e-01,  2.88852677e-02,
       -1.14603914e-01, -9.02256370e-02, -6.05553873e-02,  1.54202014e-01,
        2.93569863e-01, -1.37213603e-01, -1.39891028e-01,  1.59117818e-01,
       -3.79658043e-01, -1.62710622e-01,  1.87931746e-01,  5.80350459e-02,
       -6.65043414e-01, -1.38559908e-01,  1.25116417e-02, -2.63784051e-01,
       -1.28263146e-01, -1.59216858e-02,  1.58543319e-01, -3.65800291e-01,
       -6.84979260e-01,  1.80454529e-03,  3.27618122e-01, -4.17869985e-01,
       -1.11109704e-01, -2.43064540e-04, -1.50672793e-02, -1.58954501e-01,
       -1.56378880e-01,  9.41836312e-02,  3.94756287e-01, -1.25932172e-01,
       -3.20023715e-01,  8.23499635e-02,  2.43561566e-01,  1.13582969e-01,
        3.92655544e-02, -1.16432242e-01, -6.06587768e-01, -6.07129037e-02,
       -2.00811952e-01, -3.99281271e-02,  3.11695822e-02,  4.86384660e-01,
        3.91952872e-01, -2.08942905e-01,  2.17146084e-01,  4.22396779e-01,
       -3.93629402e-01, -2.98124105e-01, -6.75750196e-01, -6.13881230e-01,
       -3.81421804e-01,  6.00466579e-02, -4.88964945e-01, -4.88462418e-01,
       -6.43788636e-01, -1.75285816e-01, -2.90952981e-01, -4.24285889e-01,
       -3.13807338e-01, -8.59456718e-01, -4.30454999e-01, -6.88791215e-01,
       -2.40868703e-01, -2.72159576e-01, -2.69946605e-01, -7.01645836e-02,
       -4.05724496e-01, -4.18653846e-01, -7.19877422e-01, -2.77543485e-01,
       -4.25293505e-01, -7.39233971e-01, -4.43030715e-01, -2.79925257e-01,
       -3.18178266e-01, -2.77790576e-01, -1.56548973e-02, -4.08539385e-01,
        1.27910346e-01, -2.69505233e-01, -1.43119231e-01, -4.26743239e-01,
       -5.29505730e-01, -6.84376538e-01, -4.20949489e-01, -7.68796623e-01,
       -5.47539830e-01, -2.41614416e-01, -6.03384495e-01, -2.37492770e-01,
       -4.07051414e-01, -3.16452563e-01, -6.22692764e-01, -4.29506570e-01,
       -6.42336011e-01, -7.45145380e-01, -3.63931537e-01, -5.05701780e-01,
       -5.03318727e-01, -5.94955385e-01, -3.59826982e-01, -3.61418396e-01,
       -5.04018009e-01, -2.51699120e-01, -3.70908350e-01, -5.72523475e-01,
       -2.68382221e-01, -2.30719671e-01, -1.99311078e-01, -5.15772343e-01,
       -5.07002831e-01, -3.38131011e-01, -8.12388361e-02, -6.57838702e-01,
       -1.76963583e-01,  6.99639926e-03, -8.11326504e-01, -4.15918440e-01,
       -5.22959769e-01, -5.99220097e-01, -5.35916209e-01, -4.60958034e-01,
       -3.70448500e-01, -8.47819507e-01, -3.49033743e-01, -3.52248341e-01,
       -4.61873919e-01, -4.98343080e-01, -5.36210954e-01, -5.08805275e-01,
       -2.97198981e-01, -3.24224204e-01, -6.28188372e-01, -4.15550292e-01,
       -4.00630742e-01, -3.22929591e-01, -3.88368130e-01, -5.01566589e-01,
       -8.09904002e-03, -8.04742217e-01, -1.04391485e-01,  3.82248238e-02,
       -3.31072867e-01, -4.24664736e-01, -2.61381090e-01, -3.77476305e-01,
       -1.11307807e-01, -5.32355249e-01, -1.69962481e-01, -3.51624489e-01,
       -3.56392831e-01, -1.15963139e-01, -2.99590021e-01, -4.02293235e-01,
       -3.41167808e-01, -4.21421766e-01, -4.23444390e-01, -4.21023637e-01,
       -2.65791982e-01, -5.49886882e-01, -5.48225760e-01, -3.96445543e-01,
       -1.57182187e-01, -6.12106204e-01, -2.12897062e-01, -3.50485981e-01,
       -1.08262021e-02, -3.99589777e-01, -4.76220280e-01, -4.60982323e-01,
       -6.78380847e-01, -5.35365820e-01, -6.75038159e-01, -1.64616808e-01],
      dtype=float32), array([[-0.19673567, -0.6936926 , -0.08129662, ..., -0.7784705 ,
         0.0688017 ,  0.59139556],
       [ 0.03871139,  0.10288022,  0.41920084, ...,  0.50689423,
         0.27352923, -0.920407  ],
       [ 0.04486265, -0.4305656 , -0.2907156 , ...,  0.28897616,
         0.18786575,  0.0837374 ],
       ...,
       [-0.10177736, -0.01009531, -0.8504643 , ..., -0.08371056,
         0.10622821,  0.12421291],
       [-0.47988927,  0.07712546,  0.0271976 , ...,  0.27941853,
        -0.5636854 ,  0.19493255],
       [-0.15402314,  0.40313727, -0.04341005, ...,  0.48328802,
         0.16007635, -0.4280759 ]], dtype=float32), array([[-6.8943608e-01,  7.5874571e-04, -2.8758454e-01, ...,
        -2.2175716e-01, -5.4617500e-01,  1.2844930e+00],
       [ 1.3968226e-01, -6.9208718e-03,  1.7092761e-01, ...,
         1.5127832e-01, -4.3099102e-01,  1.3799228e-01],
       [ 1.7305167e-01,  4.4387168e-01, -3.4458095e-01, ...,
         7.0106435e-01,  3.2445729e-01, -6.1801836e-02],
       ...,
       [-4.6599427e-01, -5.7610922e-02, -2.7177325e-01, ...,
         5.0402820e-01, -7.4129272e-01, -3.6283001e-02],
       [-5.8931708e-01,  2.3831233e-01, -5.0221449e-01, ...,
         8.5358530e-01,  3.1859863e-01, -1.5799619e-01],
       [-1.8054162e-01, -3.6721739e-01, -3.4628475e-01, ...,
         1.8742295e-02, -5.5352473e-01, -5.5576879e-01]], dtype=float32), array([-0.2709962 ,  0.44734204, -0.06020951,  0.22296084,  0.3350692 ,
        0.08479808,  0.24136402, -0.02647883, -0.12839296,  0.07963663,
       -0.27781162,  0.18722376,  0.32735962,  0.00732577, -0.4102059 ,
       -0.09857023, -0.10450874,  0.25012696, -0.12262713, -0.24804571,
        0.16789292,  0.0156023 , -0.3076938 , -0.13739288,  0.07713103,
        0.02944854,  0.4474754 , -0.13965411, -0.1024273 ,  0.03582729,
        0.09411608, -0.33805534,  0.33598274,  0.27228388, -0.16961274,
        0.04295924,  0.02512361,  0.4056405 ,  0.40618366,  0.21814114,
        0.6301548 ,  0.00589013,  0.00772569, -0.03380463,  0.04045618,
        0.4606554 , -0.09606726, -0.15696706,  0.20090969,  0.6455997 ,
        0.05532929,  0.12720186,  0.3470344 , -0.28413796,  0.3822852 ,
        0.5459454 , -0.10856915,  0.2639683 , -0.27315855,  0.09329122,
        0.23033816, -0.15273443,  0.27143556,  0.3465273 ,  1.0796783 ,
        0.9068318 ,  1.1209439 ,  1.0347122 ,  0.7741708 ,  1.2931849 ,
        1.265339  ,  1.0742837 ,  0.98385733,  1.0244864 ,  1.1554009 ,
        0.96315247,  1.2392868 ,  1.0951672 ,  1.147825  ,  0.98316246,
        0.85045654,  0.87530667,  0.74452436,  1.0483022 ,  0.8217517 ,
        0.99447197,  0.8472155 ,  0.95853764,  1.1362939 ,  1.16623   ,
        0.8395611 ,  1.0474572 ,  1.0118299 ,  0.9757335 ,  0.9625692 ,
        0.861793  ,  0.67193764,  1.1817412 ,  1.1426605 ,  0.88420683,
        1.1602353 ,  0.73677576,  0.85478956,  0.6886016 ,  1.1194482 ,
        1.2787132 ,  0.8098613 ,  1.1271418 ,  1.202885  ,  1.0898657 ,
        1.0114583 ,  1.1833637 ,  0.96819246,  0.89843076,  1.0764157 ,
        1.0161535 ,  0.89739764,  0.78566456,  1.001467  ,  0.45444563,
        0.9226278 ,  0.7836308 ,  0.80456537,  1.1696967 ,  0.96196824,
        1.0786247 ,  0.8982818 ,  1.0234127 ,  0.3908347 , -0.18880072,
        0.5155416 , -0.01336699, -0.1542034 , -0.4614398 , -0.15044576,
       -0.40317085,  0.42790496, -0.02412018,  0.56088865,  0.26041296,
       -0.1193778 ,  0.5705874 ,  0.06331594, -0.01343033,  0.31028616,
        0.24224126,  0.04534587,  0.22745936, -0.30993617,  0.16800807,
        0.6239268 ,  0.34436324,  0.06408373,  0.05262242,  0.45523965,
        0.01231077,  0.5263008 ,  0.23026733, -0.12517582, -0.03875892,
        0.0486484 ,  0.40481648, -0.1884401 , -0.20218389, -0.19131891,
        0.13839962,  0.07048884, -0.10491475, -0.29753682, -0.02855959,
       -0.09455439, -0.5502507 ,  0.6060975 ,  0.42220375, -0.1207433 ,
       -0.04726219,  0.4187337 , -0.14367758, -0.29716486,  0.10090768,
        0.38960153,  0.12389959, -0.36724785,  0.7786664 , -0.4313143 ,
        0.6701692 ,  0.365847  ,  0.01450429, -0.16122058,  0.1355089 ,
       -0.6058535 , -0.33291873,  0.13922314,  0.59142107,  0.3677433 ,
        0.69632614,  0.13799937,  0.33217424,  0.02785227,  0.48830512,
        0.21071078,  0.1348343 ,  0.4625584 ,  0.11974279,  0.2393552 ,
       -0.00361457,  0.26557663,  0.6040393 ,  0.03559379,  0.3934742 ,
        0.09524118,  0.17658687,  0.59169585,  0.24899931,  0.15905643,
        0.3842402 ,  0.04098557,  0.27750227,  1.0706302 ,  0.09735132,
        0.0955271 ,  0.2851483 ,  0.38984093,  0.26402217,  0.72218305,
        0.5599273 , -0.21612829,  0.06453018,  0.34746757,  0.2646287 ,
        0.48035175,  0.09966985, -0.20568302,  0.391829  ,  0.36561835,
        0.42303824,  0.54287845,  0.59261125, -0.04491727,  0.4509937 ,
        0.33676308,  0.20953147,  0.4636023 ,  0.30258903,  0.5228005 ,
        0.26991224,  0.4402899 ,  0.65517384,  0.5147091 ,  0.5007844 ,
        0.39679974,  0.5439572 ,  0.6247845 ,  0.13902445,  0.45201057,
        0.31476527], dtype=float32), array([[-0.21727431,  0.1557893 ,  0.0272074 , ..., -0.36922517,
         0.20907408, -0.17092651],
       [ 0.346394  , -0.5755563 ,  0.23088321, ...,  0.6661894 ,
         0.9002365 ,  0.28410503],
       [ 0.13711981, -0.4770532 , -0.62882435, ...,  0.5633022 ,
         0.01204794,  0.16528726],
       ...,
       [-0.1299398 , -0.1592434 , -0.41413096, ...,  0.04222912,
        -0.03124847,  0.1094351 ],
       [ 0.09937293,  0.20349582, -0.34230033, ..., -0.2644808 ,
         0.02626172,  0.30964282],
       [-0.2591026 , -0.10741915, -0.03760869, ..., -0.08265717,
         0.38260528,  0.53642046]], dtype=float32), array([[-4.5841213e-02,  2.1479332e-01,  2.7308852e-04, ...,
        -2.0102358e-01,  5.1616400e-01, -3.4022242e-01],
       [ 2.4709105e-01, -1.1702986e-01, -3.1171325e-01, ...,
        -5.7214171e-01, -2.5537141e-02, -4.9800688e-01],
       [ 8.2305215e-02,  3.4306675e-01, -6.3409215e-01, ...,
        -3.3283621e-01,  6.3874900e-01, -4.6108764e-02],
       ...,
       [-3.3081156e-01, -1.8730031e-01, -1.2876566e-01, ...,
         7.3885953e-01,  1.8846659e-01, -4.8311698e-01],
       [-2.7581826e-01, -5.1480031e-01,  1.0145731e-01, ...,
         7.5002991e-02, -9.1063619e-01,  3.5412559e-01],
       [ 3.2741261e-01,  4.2806911e-01,  2.7144265e-01, ...,
         2.0401053e-02, -5.5571184e-02,  7.3471420e-02]], dtype=float32), array([ 0.12319414, -0.0359979 , -0.00556513,  0.29754305, -0.06070061,
       -0.40021214,  0.08981159,  0.25149497,  0.28470603, -0.21591474,
       -0.19111262, -0.2551708 ,  0.16872022, -0.44715616,  0.18114679,
        0.00995751,  0.06145496, -0.31108138,  0.16921431,  0.26783705,
       -0.04386672, -0.04159963,  0.09297025, -0.48275498, -0.16144311,
        0.17349495, -0.40431103,  0.5555763 ,  0.39325327, -0.01941769,
       -0.03473936,  0.05452139, -0.03045091,  0.12803909,  0.3161238 ,
       -0.13571931,  0.34038672,  0.23561972,  0.13824432,  0.4231979 ,
        0.01788979,  0.4395818 , -0.08141702, -0.09626497,  0.31370953,
       -0.25456396, -0.03466703, -0.06931271, -0.01199455,  0.19586505,
       -0.22019042, -0.13281552,  0.37524897, -0.1045691 ,  0.36921272,
        0.24019712,  0.27576834,  0.32209772,  0.14105855, -0.08895694,
       -0.15843345,  0.20089716,  0.00343957, -0.00333974,  0.78340137,
        1.0272695 ,  0.9397824 ,  1.1463655 ,  0.99816   ,  0.5682289 ,
        0.96324587,  0.89986676,  0.7970931 ,  0.9947364 ,  0.75277203,
        1.153183  ,  1.0032762 ,  0.9800796 ,  0.98482394,  0.8597171 ,
        0.9767821 ,  0.97438663,  1.105836  ,  1.0674933 ,  1.0636607 ,
        1.0100605 ,  1.1905658 ,  1.1391975 ,  0.9001509 ,  1.262874  ,
        1.0889436 ,  0.6944997 ,  1.1013241 ,  0.7684872 ,  0.865443  ,
        1.2134786 ,  1.092774  ,  1.1137506 ,  0.89899766,  0.9054184 ,
        0.7727992 ,  0.7984013 ,  1.1935978 ,  0.7243118 ,  0.91814107,
        1.0391634 ,  1.066139  ,  1.0477041 ,  1.0020287 ,  0.9031421 ,
        1.2195985 ,  1.1076013 ,  0.87525517,  1.0567217 ,  0.57924515,
        0.6567784 ,  0.68726003,  0.7868813 ,  0.89139616,  1.1755197 ,
        1.1034583 ,  1.0444916 ,  1.239169  ,  0.90492684,  0.8802875 ,
        0.9644858 ,  1.2069353 ,  0.6205685 ,  0.1266281 , -0.1861203 ,
        0.12621513, -0.4346985 , -0.27765834,  0.5444648 , -0.5507235 ,
       -0.41576326,  0.173595  ,  0.2831342 , -0.02319182, -0.16939105,
        0.03209197,  0.30170465, -0.0823542 ,  0.00274742, -0.42273897,
        0.10885552,  0.33597195, -0.00554006, -0.30142036, -0.4030781 ,
       -0.29115728, -0.03669098,  0.01405471,  0.4719116 ,  0.29339728,
       -0.6252776 , -0.5990858 , -0.04640641,  0.08022355,  0.09095123,
       -0.33994848, -0.2742276 , -0.02367992,  0.06786192, -0.1356048 ,
       -0.11827892, -0.5938842 ,  0.4261748 ,  0.02712858, -0.3014563 ,
        0.40867957, -0.20027716, -0.6257425 , -0.2922377 , -0.3147918 ,
        0.23558353, -0.25391683,  0.320205  ,  0.2216149 , -0.01310203,
        0.08554662,  0.05518813,  0.53744894, -0.00607597, -0.31617236,
       -0.57323045,  0.5397294 ,  0.5497854 , -0.417835  , -0.1550047 ,
       -0.3583871 , -0.11980063,  0.8122979 ,  0.5820391 , -0.17244817,
        0.90437585,  0.6511108 ,  0.9604173 ,  0.55765086,  0.14172123,
        0.30587602,  0.47997153,  0.49242485,  0.5145211 ,  0.42769614,
        0.23078121,  0.3997098 ,  0.11335449,  0.3695026 , -0.14130154,
        0.44454476,  0.76998955, -0.00838786,  0.11646797,  0.81296825,
       -0.09364665,  0.05793022,  0.10609328,  0.13821709,  0.4984209 ,
        0.51590985,  0.66136414, -0.03007285,  0.3682618 ,  0.20411964,
        0.27357548,  0.6435911 ,  0.41269442,  0.23550314,  0.4924917 ,
        0.4860042 , -0.1450537 ,  0.3583976 ,  0.14143518,  0.27543208,
        0.18215585,  0.50774556,  0.30404368,  0.53528804,  0.5319148 ,
        0.12351162,  0.33589312, -0.10373539,  0.67653847,  0.14126185,
        0.20692937,  0.4058216 ,  0.43021622,  0.64660686,  0.14102136,
        0.5146814 ,  0.28528684,  0.56728643,  0.60117304,  0.6311719 ,
        0.2506889 ], dtype=float32), array([[-0.67528015, -0.4380653 ,  0.28362685, ..., -0.8027151 ,
        -0.7933199 , -0.03902325],
       [ 0.00632815, -0.34664944, -0.20758791, ...,  0.11823554,
        -0.01348707,  1.139317  ],
       [-0.8431606 ,  0.3526665 ,  0.17767933, ..., -0.7894096 ,
        -0.8796282 ,  0.06501951],
       ...,
       [-0.84381664,  0.481859  , -1.357569  , ..., -0.67647773,
        -0.8690346 ,  0.24638142],
       [-0.566225  ,  0.58677346, -0.28094336, ..., -0.5975441 ,
        -0.64260703,  0.30767092],
       [ 0.16899197, -0.49748412, -1.2734625 , ...,  0.18487003,
         0.29894924, -0.3188368 ]], dtype=float32), array([-1.57280123e+00, -5.62468804e-02, -8.43634665e-01, -1.50087969e-02,
       -4.25365508e-01, -2.25443736e-01, -1.71848106e+00,  1.98613614e-01,
       -1.57111931e+00, -2.42027089e-01, -5.82595393e-02, -3.63442719e-01,
       -3.39625090e-01,  1.31972075e-01,  6.55503690e-01,  2.43494302e-01,
       -1.65324593e+00,  1.38268005e-02, -7.40091177e-03,  3.40977222e-01,
       -1.63136172e+00,  1.50262281e-01, -8.41351673e-02,  2.15421081e-01,
        2.73322731e-01, -2.10095495e-01, -1.57370484e+00, -9.63547602e-02,
       -1.58377719e+00,  8.48686993e-02,  2.91485582e-02,  1.10055454e-01,
       -7.15046152e-02,  2.95822889e-01,  1.53885081e-01,  3.52956615e-02,
       -1.19063705e-01,  2.09237158e-01, -3.53144594e-02, -1.83719575e-01,
       -2.21018776e-01,  2.26938263e-01, -4.50691313e-01,  9.03661624e-02,
       -2.59372499e-02, -1.95879668e-01, -1.80260730e+00, -1.30526528e-01,
       -6.33031011e-01,  1.56095237e-01,  8.82234797e-03, -4.05218244e-01,
       -1.64755487e+00, -2.23899081e-01,  2.46148948e-02, -1.52932987e-01,
       -1.70756972e+00,  1.45191895e-02, -5.93725920e-01,  1.02874845e-01,
       -1.55165836e-01, -1.55340183e+00,  5.36295846e-02, -2.14836337e-02,
       -1.44797027e-01,  2.47155517e-01,  7.23654106e-02,  6.14391454e-02,
       -4.76423085e-01,  2.13248149e-01,  2.00516328e-01, -2.87895709e-01,
       -2.09321946e-01, -1.81315884e-01,  3.71044457e-01, -1.58821535e+00,
       -1.67802203e+00, -6.37380406e-02,  2.60803252e-01, -1.65150836e-01,
       -3.78695995e-01, -6.86557055e-01,  1.35034025e-01, -1.53471613e+00,
        3.32759134e-02, -1.62933898e+00,  7.03510456e-03,  7.97704095e-04,
       -4.08877730e-01, -2.49933466e-01, -3.86546969e-01,  9.91664268e-03,
        2.83931177e-02, -1.82314420e+00, -1.72929871e+00,  2.24443823e-01],
      dtype=float32)]